digraph Tree {
node [shape=box] ;
0 [label="Age_21-35 <= 0.5\nentropy = 0.94\nsamples = 14\nvalue = [5, 9]\nclass = no"] ;
1 [label="Gender_Male <= 0.5\nentropy = 1.0\nsamples = 10\nvalue = [5, 5]\nclass = yes"] ;
0 -> 1 [labeldistance=2.5, labelangle=45, headlabel="True"] ;
2 [label="entropy = 0.722\nsamples = 5\nvalue = [1, 4]\nclass = no"] ;
1 -> 2 ;
3 [label="entropy = 0.722\nsamples = 5\nvalue = [4, 1]\nclass = yes"] ;
1 -> 3 ;
4 [label="entropy = 0.0\nsamples = 4\nvalue = [0, 4]\nclass = no"] ;
0 -> 4 [labeldistance=2.5, labelangle=-45, headlabel="False"] ;
}